-4.490124434232711792e-02 8.037289232015609741e-02 1.155181974172592163e-01 1.688237190246582031e-01 1.404035538434982300e-01 5.857614427804946899e-02 -3.813381865620613098e-02
-4.977161064743995667e-02 1.016854494810104370e-01 2.177966833114624023e-01 2.419624626636505127e-01 2.569991052150726318e-01 1.460968405008316040e-01 4.906592075712978840e-04
1.267747371457517147e-03 1.647420525550842285e-01 3.125871419906616211e-01 2.323815524578094482e-01 3.334943354129791260e-01 2.046036273241043091e-01 2.691920101642608643e-02
9.927957504987716675e-02 1.104256138205528259e-01 3.072794340550899506e-02 -3.292059302330017090e-01 -5.519170686602592468e-02 5.152517184615135193e-02 3.902071714401245117e-02
1.147898212075233459e-01 6.738466024398803711e-02 -1.095251645892858505e-04 -3.126157522201538086e-01 -1.385589838027954102e-01 -6.011867150664329529e-02 1.682457886636257172e-02
1.073144078254699707e-01 6.401425600051879883e-02 -2.457984723150730133e-02 -1.642336398363113403e-01 -1.408266574144363403e-01 -1.049224808812141418e-01 -8.850681595504283905e-03
1.207894738763570786e-02 3.822298347949981689e-02 -3.823251277208328247e-02 -4.774308949708938599e-02 -8.516736328601837158e-02 -4.930848628282546997e-02 -1.996966078877449036e-02
